digraph Tree {
node [shape=box, style="filled, rounded", color="black", fontname="helvetica"] ;
edge [fontname="helvetica"] ;
0 [label="Sex <= 0.5\ngini = 0.474\nsamples = 595\nvalue = [365, 230]\nclass = died", fillcolor="#f5d0b6"] ;
1 [label="Age <= 3.5\ngini = 0.321\nsamples = 393\nvalue = [314, 79]\nclass = died", fillcolor="#eca16b"] ;
0 -> 1 [labeldistance=2.5, labelangle=45, headlabel="True"] ;
2 [label="gini = 0.408\nsamples = 14\nvalue = [4, 10]\nclass = survived", fillcolor="#88c4ef"] ;
1 -> 2 ;
3 [label="gini = 0.298\nsamples = 379\nvalue = [310, 69]\nclass = died", fillcolor="#eb9d65"] ;
1 -> 3 ;
4 [label="Pclass <= 2.5\ngini = 0.377\nsamples = 202\nvalue = [51, 151]\nclass = survived", fillcolor="#7cbeee"] ;
0 -> 4 [labeldistance=2.5, labelangle=-45, headlabel="False"] ;
5 [label="gini = 0.086\nsamples = 111\nvalue = [5, 106]\nclass = survived", fillcolor="#42a2e6"] ;
4 -> 5 ;
6 [label="gini = 0.5\nsamples = 91\nvalue = [46, 45]\nclass = died", fillcolor="#fefcfb"] ;
4 -> 6 ;
}